digraph Tree {
node [shape=box, style="filled, rounded", color="black", fontname="helvetica"] ;
edge [fontname="helvetica"] ;
0 [label="1006 <= -0.42\ngini = 0.89\nsamples = 182\nvalue = [25, 47, 38, 35, 28, 18, 30, 12, 37, 17]\nclass = Pappagallo", fillcolor="#fefef8"] ;
1 [label="3306 <= 0.76\ngini = 0.86\nsamples = 118\nvalue = [25, 36, 32, 1, 5, 18, 28, 12, 19, 4]\nclass = Pappagallo", fillcolor="#fefefa"] ;
0 -> 1 [labeldistance=2.5, labelangle=45, headlabel="True"] ;
2 [label="1 <= -4.92\ngini = 0.86\nsamples = 106\nvalue = [25, 36, 29, 1, 5, 18, 14, 12, 19, 4]\nclass = Pappagallo", fillcolor="#fdfef5"] ;
1 -> 2 ;
3 [label="34 <= -0.29\ngini = 0.39\nsamples = 23\nvalue = [24, 0, 0, 0, 0, 1, 2, 1, 3, 0]\nclass = Lima", fillcolor="#eca06a"] ;
2 -> 3 ;
4 [label="270 <= -0.36\ngini = 0.25\nsamples = 20\nvalue = [24, 0, 0, 0, 0, 0, 0, 1, 3, 0]\nclass = Lima", fillcolor="#e99559"] ;
3 -> 4 ;
5 [label="106 <= -0.22\ngini = 0.09\nsamples = 13\nvalue = [19, 0, 0, 0, 0, 0, 0, 0, 1, 0]\nclass = Lima", fillcolor="#e68843"] ;
4 -> 5 ;
6 [label="522 <= 1.6\ngini = 0.22\nsamples = 6\nvalue = [7, 0, 0, 0, 0, 0, 0, 0, 1, 0]\nclass = Lima", fillcolor="#e99355"] ;
5 -> 6 ;
7 [label="782 <= 0.31\ngini = 0.38\nsamples = 3\nvalue = [3, 0, 0, 0, 0, 0, 0, 0, 1, 0]\nclass = Lima", fillcolor="#eeab7b"] ;
6 -> 7 ;
8 [label="gini = 0.0\nsamples = 2\nvalue = [3, 0, 0, 0, 0, 0, 0, 0, 0, 0]\nclass = Lima", fillcolor="#e58139"] ;
7 -> 8 ;
9 [label="gini = 0.0\nsamples = 1\nvalue = [0, 0, 0, 0, 0, 0, 0, 0, 1, 0]\nclass = Cacciavite", fillcolor="#e539c0"] ;
7 -> 9 ;
10 [label="gini = 0.0\nsamples = 3\nvalue = [4, 0, 0, 0, 0, 0, 0, 0, 0, 0]\nclass = Lima", fillcolor="#e58139"] ;
6 -> 10 ;
11 [label="gini = 0.0\nsamples = 7\nvalue = [12, 0, 0, 0, 0, 0, 0, 0, 0, 0]\nclass = Lima", fillcolor="#e58139"] ;
5 -> 11 ;
12 [label="86 <= -0.46\ngini = 0.53\nsamples = 7\nvalue = [5, 0, 0, 0, 0, 0, 0, 1, 2, 0]\nclass = Lima", fillcolor="#f2c09c"] ;
4 -> 12 ;
13 [label="64 <= -0.37\ngini = 0.57\nsamples = 6\nvalue = [4, 0, 0, 0, 0, 0, 0, 1, 2, 0]\nclass = Lima", fillcolor="#f5cdb0"] ;
12 -> 13 ;
14 [label="0 <= -8.09\ngini = 0.61\nsamples = 5\nvalue = [3, 0, 0, 0, 0, 0, 0, 1, 2, 0]\nclass = Lima", fillcolor="#f8e0ce"] ;
13 -> 14 ;
15 [label="gini = 0.0\nsamples = 1\nvalue = [0, 0, 0, 0, 0, 0, 0, 1, 0, 0]\nclass = Brugola", fillcolor="#a339e5"] ;
14 -> 15 ;
16 [label="6 <= 0.77\ngini = 0.48\nsamples = 4\nvalue = [3, 0, 0, 0, 0, 0, 0, 0, 2, 0]\nclass = Lima", fillcolor="#f6d5bd"] ;
14 -> 16 ;
17 [label="gini = 0.0\nsamples = 2\nvalue = [3, 0, 0, 0, 0, 0, 0, 0, 0, 0]\nclass = Lima", fillcolor="#e58139"] ;
16 -> 17 ;
18 [label="gini = 0.0\nsamples = 2\nvalue = [0, 0, 0, 0, 0, 0, 0, 0, 2, 0]\nclass = Cacciavite", fillcolor="#e539c0"] ;
16 -> 18 ;
19 [label="gini = 0.0\nsamples = 1\nvalue = [1, 0, 0, 0, 0, 0, 0, 0, 0, 0]\nclass = Lima", fillcolor="#e58139"] ;
13 -> 19 ;
20 [label="gini = 0.0\nsamples = 1\nvalue = [1, 0, 0, 0, 0, 0, 0, 0, 0, 0]\nclass = Lima", fillcolor="#e58139"] ;
12 -> 20 ;
21 [label="288 <= -0.14\ngini = 0.44\nsamples = 3\nvalue = [0, 0, 0, 0, 0, 1, 2, 0, 0, 0]\nclass = Martello", fillcolor="#9e9cf2"] ;
3 -> 21 ;
22 [label="458 <= 0.09\ngini = 0.5\nsamples = 2\nvalue = [0, 0, 0, 0, 0, 1, 1, 0, 0, 0]\nclass = Chiave inglese", fillcolor="#ffffff"] ;
21 -> 22 ;
23 [label="gini = 0.0\nsamples = 1\nvalue = [0, 0, 0, 0, 0, 0, 1, 0, 0, 0]\nclass = Martello", fillcolor="#3c39e5"] ;
22 -> 23 ;
24 [label="gini = 0.0\nsamples = 1\nvalue = [0, 0, 0, 0, 0, 1, 0, 0, 0, 0]\nclass = Chiave inglese", fillcolor="#399de5"] ;
22 -> 24 ;
25 [label="gini = 0.0\nsamples = 1\nvalue = [0, 0, 0, 0, 0, 0, 1, 0, 0, 0]\nclass = Martello", fillcolor="#3c39e5"] ;
21 -> 25 ;
26 [label="590 <= -0.19\ngini = 0.83\nsamples = 83\nvalue = [1, 36, 29, 1, 5, 17, 12, 11, 16, 4]\nclass = Pappagallo", fillcolor="#fdfdf2"] ;
2 -> 26 ;
27 [label="2158 <= -0.11\ngini = 0.86\nsamples = 65\nvalue = [1, 14, 17, 1, 5, 17, 12, 11, 16, 4]\nclass = Pinza", fillcolor="#ffffff"] ;
26 -> 27 ;
28 [label="3048 <= 0.26\ngini = 0.86\nsamples = 55\nvalue = [1, 7, 9, 1, 5, 17, 10, 11, 16, 4]\nclass = Chiave inglese", fillcolor="#fcfdff"] ;
27 -> 28 ;
29 [label="490 <= -0.39\ngini = 0.85\nsamples = 54\nvalue = [1, 7, 9, 1, 2, 17, 10, 11, 16, 4]\nclass = Chiave inglese", fillcolor="#fcfdff"] ;
28 -> 29 ;
30 [label="646 <= -0.18\ngini = 0.78\nsamples = 30\nvalue = [0, 7, 4, 0, 0, 6, 10, 11, 0, 0]\nclass = Brugola", fillcolor="#fcf8fe"] ;
29 -> 30 ;
31 [label="38 <= -0.88\ngini = 0.69\nsamples = 23\nvalue = [0, 2, 0, 0, 0, 6, 10, 11, 0, 0]\nclass = Brugola", fillcolor="#faf5fe"] ;
30 -> 31 ;
32 [label="gini = 0.0\nsamples = 8\nvalue = [0, 0, 0, 0, 0, 0, 0, 11, 0, 0]\nclass = Brugola", fillcolor="#a339e5"] ;
31 -> 32 ;
33 [label="368 <= 0.07\ngini = 0.57\nsamples = 15\nvalue = [0, 2, 0, 0, 0, 6, 10, 0, 0, 0]\nclass = Martello", fillcolor="#bebdf6"] ;
31 -> 33 ;
34 [label="16 <= -0.33\ngini = 0.47\nsamples = 13\nvalue = [0, 0, 0, 0, 0, 6, 10, 0, 0, 0]\nclass = Martello", fillcolor="#b1b0f5"] ;
33 -> 34 ;
35 [label="6634 <= -0.12\ngini = 0.38\nsamples = 7\nvalue = [0, 0, 0, 0, 0, 6, 2, 0, 0, 0]\nclass = Chiave inglese", fillcolor="#7bbeee"] ;
34 -> 35 ;
36 [label="gini = 0.0\nsamples = 5\nvalue = [0, 0, 0, 0, 0, 6, 0, 0, 0, 0]\nclass = Chiave inglese", fillcolor="#399de5"] ;
35 -> 36 ;
37 [label="gini = 0.0\nsamples = 2\nvalue = [0, 0, 0, 0, 0, 0, 2, 0, 0, 0]\nclass = Martello", fillcolor="#3c39e5"] ;
35 -> 37 ;
38 [label="gini = 0.0\nsamples = 6\nvalue = [0, 0, 0, 0, 0, 0, 8, 0, 0, 0]\nclass = Martello", fillcolor="#3c39e5"] ;
34 -> 38 ;
39 [label="gini = 0.0\nsamples = 2\nvalue = [0, 2, 0, 0, 0, 0, 0, 0, 0, 0]\nclass = Pappagallo", fillcolor="#e2e539"] ;
33 -> 39 ;
40 [label="200 <= 0.15\ngini = 0.49\nsamples = 7\nvalue = [0, 5, 4, 0, 0, 0, 0, 0, 0, 0]\nclass = Pappagallo", fillcolor="#f9fad7"] ;
30 -> 40 ;
41 [label="gini = 0.0\nsamples = 4\nvalue = [0, 5, 0, 0, 0, 0, 0, 0, 0, 0]\nclass = Pappagallo", fillcolor="#e2e539"] ;
40 -> 41 ;
42 [label="gini = 0.0\nsamples = 3\nvalue = [0, 0, 4, 0, 0, 0, 0, 0, 0, 0]\nclass = Pinza", fillcolor="#7be539"] ;
40 -> 42 ;
43 [label="974 <= -0.28\ngini = 0.74\nsamples = 24\nvalue = [1, 0, 5, 1, 2, 11, 0, 0, 16, 4]\nclass = Cacciavite", fillcolor="#fbddf4"] ;
29 -> 43 ;
44 [label="582 <= 0.2\ngini = 0.67\nsamples = 12\nvalue = [0, 0, 5, 1, 2, 11, 0, 0, 0, 3]\nclass = Chiave inglese", fillcolor="#b9dcf6"] ;
43 -> 44 ;
45 [label="534 <= 2.2\ngini = 0.61\nsamples = 10\nvalue = [0, 0, 2, 1, 2, 11, 0, 0, 0, 3]\nclass = Chiave inglese", fillcolor="#9ccef2"] ;
44 -> 45 ;
46 [label="1574 <= -0.31\ngini = 0.53\nsamples = 9\nvalue = [0, 0, 2, 1, 0, 11, 0, 0, 0, 3]\nclass = Chiave inglese", fillcolor="#8ec7f0"] ;
45 -> 46 ;
47 [label="6950 <= 3.63\ngini = 0.26\nsamples = 6\nvalue = [0, 0, 2, 0, 0, 11, 0, 0, 0, 0]\nclass = Chiave inglese", fillcolor="#5dafea"] ;
46 -> 47 ;
48 [label="gini = 0.0\nsamples = 5\nvalue = [0, 0, 0, 0, 0, 11, 0, 0, 0, 0]\nclass = Chiave inglese", fillcolor="#399de5"] ;
47 -> 48 ;
49 [label="gini = 0.0\nsamples = 1\nvalue = [0, 0, 2, 0, 0, 0, 0, 0, 0, 0]\nclass = Pinza", fillcolor="#7be539"] ;
47 -> 49 ;
50 [label="1062 <= 1.95\ngini = 0.38\nsamples = 3\nvalue = [0, 0, 0, 1, 0, 0, 0, 0, 0, 3]\nclass = Trapano", fillcolor="#ee7b90"] ;
46 -> 50 ;
51 [label="gini = 0.0\nsamples = 2\nvalue = [0, 0, 0, 0, 0, 0, 0, 0, 0, 3]\nclass = Trapano", fillcolor="#e53958"] ;
50 -> 51 ;
52 [label="gini = 0.0\nsamples = 1\nvalue = [0, 0, 0, 1, 0, 0, 0, 0, 0, 0]\nclass = Giratubi", fillcolor="#39e55e"] ;
50 -> 52 ;
53 [label="gini = 0.0\nsamples = 1\nvalue = [0, 0, 0, 0, 2, 0, 0, 0, 0, 0]\nclass = Spatola", fillcolor="#39e5c5"] ;
45 -> 53 ;
54 [label="gini = 0.0\nsamples = 2\nvalue = [0, 0, 3, 0, 0, 0, 0, 0, 0, 0]\nclass = Pinza", fillcolor="#7be539"] ;
44 -> 54 ;
55 [label="3110 <= 0.94\ngini = 0.2\nsamples = 12\nvalue = [1, 0, 0, 0, 0, 0, 0, 0, 16, 1]\nclass = Cacciavite", fillcolor="#e850c7"] ;
43 -> 55 ;
56 [label="222 <= 0.41\ngini = 0.11\nsamples = 11\nvalue = [1, 0, 0, 0, 0, 0, 0, 0, 16, 0]\nclass = Cacciavite", fillcolor="#e745c4"] ;
55 -> 56 ;
57 [label="230 <= -0.32\ngini = 0.14\nsamples = 9\nvalue = [1, 0, 0, 0, 0, 0, 0, 0, 12, 0]\nclass = Cacciavite", fillcolor="#e749c5"] ;
56 -> 57 ;
58 [label="gini = 0.0\nsamples = 1\nvalue = [1, 0, 0, 0, 0, 0, 0, 0, 0, 0]\nclass = Lima", fillcolor="#e58139"] ;
57 -> 58 ;
59 [label="gini = 0.0\nsamples = 8\nvalue = [0, 0, 0, 0, 0, 0, 0, 0, 12, 0]\nclass = Cacciavite", fillcolor="#e539c0"] ;
57 -> 59 ;
60 [label="gini = 0.0\nsamples = 2\nvalue = [0, 0, 0, 0, 0, 0, 0, 0, 4, 0]\nclass = Cacciavite", fillcolor="#e539c0"] ;
56 -> 60 ;
61 [label="gini = 0.0\nsamples = 1\nvalue = [0, 0, 0, 0, 0, 0, 0, 0, 0, 1]\nclass = Trapano", fillcolor="#e53958"] ;
55 -> 61 ;
62 [label="gini = 0.0\nsamples = 1\nvalue = [0, 0, 0, 0, 3, 0, 0, 0, 0, 0]\nclass = Spatola", fillcolor="#39e5c5"] ;
28 -> 62 ;
63 [label="744 <= 0.51\ngini = 0.6\nsamples = 10\nvalue = [0, 7, 8, 0, 0, 0, 2, 0, 0, 0]\nclass = Pinza", fillcolor="#f2fceb"] ;
27 -> 63 ;
64 [label="1256 <= -0.07\ngini = 0.43\nsamples = 8\nvalue = [0, 1, 8, 0, 0, 0, 2, 0, 0, 0]\nclass = Pinza", fillcolor="#a7ee7b"] ;
63 -> 64 ;
65 [label="gini = 0.0\nsamples = 5\nvalue = [0, 0, 8, 0, 0, 0, 0, 0, 0, 0]\nclass = Pinza", fillcolor="#7be539"] ;
64 -> 65 ;
66 [label="78 <= -0.41\ngini = 0.44\nsamples = 3\nvalue = [0, 1, 0, 0, 0, 0, 2, 0, 0, 0]\nclass = Martello", fillcolor="#9e9cf2"] ;
64 -> 66 ;
67 [label="gini = 0.0\nsamples = 1\nvalue = [0, 1, 0, 0, 0, 0, 0, 0, 0, 0]\nclass = Pappagallo", fillcolor="#e2e539"] ;
66 -> 67 ;
68 [label="gini = 0.0\nsamples = 2\nvalue = [0, 0, 0, 0, 0, 0, 2, 0, 0, 0]\nclass = Martello", fillcolor="#3c39e5"] ;
66 -> 68 ;
69 [label="gini = 0.0\nsamples = 2\nvalue = [0, 6, 0, 0, 0, 0, 0, 0, 0, 0]\nclass = Pappagallo", fillcolor="#e2e539"] ;
63 -> 69 ;
70 [label="930 <= 7.2\ngini = 0.46\nsamples = 18\nvalue = [0, 22, 12, 0, 0, 0, 0, 0, 0, 0]\nclass = Pappagallo", fillcolor="#f2f3a5"] ;
26 -> 70 ;
71 [label="3816 <= 0.36\ngini = 0.37\nsamples = 17\nvalue = [0, 22, 7, 0, 0, 0, 0, 0, 0, 0]\nclass = Pappagallo", fillcolor="#ebed78"] ;
70 -> 71 ;
72 [label="968 <= -0.39\ngini = 0.26\nsamples = 16\nvalue = [0, 22, 4, 0, 0, 0, 0, 0, 0, 0]\nclass = Pappagallo", fillcolor="#e7ea5d"] ;
71 -> 72 ;
73 [label="1554 <= 2.2\ngini = 0.09\nsamples = 13\nvalue = [0, 21, 1, 0, 0, 0, 0, 0, 0, 0]\nclass = Pappagallo", fillcolor="#e3e642"] ;
72 -> 73 ;
74 [label="gini = 0.0\nsamples = 11\nvalue = [0, 20, 0, 0, 0, 0, 0, 0, 0, 0]\nclass = Pappagallo", fillcolor="#e2e539"] ;
73 -> 74 ;
75 [label="912 <= 3.65\ngini = 0.5\nsamples = 2\nvalue = [0, 1, 1, 0, 0, 0, 0, 0, 0, 0]\nclass = Pappagallo", fillcolor="#ffffff"] ;
73 -> 75 ;
76 [label="gini = 0.0\nsamples = 1\nvalue = [0, 1, 0, 0, 0, 0, 0, 0, 0, 0]\nclass = Pappagallo", fillcolor="#e2e539"] ;
75 -> 76 ;
77 [label="gini = 0.0\nsamples = 1\nvalue = [0, 0, 1, 0, 0, 0, 0, 0, 0, 0]\nclass = Pinza", fillcolor="#7be539"] ;
75 -> 77 ;
78 [label="2182 <= -0.27\ngini = 0.38\nsamples = 3\nvalue = [0, 1, 3, 0, 0, 0, 0, 0, 0, 0]\nclass = Pinza", fillcolor="#a7ee7b"] ;
72 -> 78 ;
79 [label="gini = 0.0\nsamples = 2\nvalue = [0, 0, 3, 0, 0, 0, 0, 0, 0, 0]\nclass = Pinza", fillcolor="#7be539"] ;
78 -> 79 ;
80 [label="gini = 0.0\nsamples = 1\nvalue = [0, 1, 0, 0, 0, 0, 0, 0, 0, 0]\nclass = Pappagallo", fillcolor="#e2e539"] ;
78 -> 80 ;
81 [label="gini = 0.0\nsamples = 1\nvalue = [0, 0, 3, 0, 0, 0, 0, 0, 0, 0]\nclass = Pinza", fillcolor="#7be539"] ;
71 -> 81 ;
82 [label="gini = 0.0\nsamples = 1\nvalue = [0, 0, 5, 0, 0, 0, 0, 0, 0, 0]\nclass = Pinza", fillcolor="#7be539"] ;
70 -> 82 ;
83 [label="568 <= 0.18\ngini = 0.29\nsamples = 12\nvalue = [0, 0, 3, 0, 0, 0, 14, 0, 0, 0]\nclass = Martello", fillcolor="#6663eb"] ;
1 -> 83 ;
84 [label="142 <= -0.17\ngini = 0.15\nsamples = 8\nvalue = [0, 0, 1, 0, 0, 0, 11, 0, 0, 0]\nclass = Martello", fillcolor="#4e4be7"] ;
83 -> 84 ;
85 [label="gini = 0.0\nsamples = 7\nvalue = [0, 0, 0, 0, 0, 0, 11, 0, 0, 0]\nclass = Martello", fillcolor="#3c39e5"] ;
84 -> 85 ;
86 [label="gini = 0.0\nsamples = 1\nvalue = [0, 0, 1, 0, 0, 0, 0, 0, 0, 0]\nclass = Pinza", fillcolor="#7be539"] ;
84 -> 86 ;
87 [label="954 <= 3.57\ngini = 0.48\nsamples = 4\nvalue = [0, 0, 2, 0, 0, 0, 3, 0, 0, 0]\nclass = Martello", fillcolor="#bebdf6"] ;
83 -> 87 ;
88 [label="gini = 0.0\nsamples = 3\nvalue = [0, 0, 0, 0, 0, 0, 3, 0, 0, 0]\nclass = Martello", fillcolor="#3c39e5"] ;
87 -> 88 ;
89 [label="gini = 0.0\nsamples = 1\nvalue = [0, 0, 2, 0, 0, 0, 0, 0, 0, 0]\nclass = Pinza", fillcolor="#7be539"] ;
87 -> 89 ;
90 [label="3654 <= 0.91\ngini = 0.8\nsamples = 64\nvalue = [0, 11, 6, 34, 23, 0, 2, 0, 18, 13]\nclass = Giratubi", fillcolor="#e5fcea"] ;
0 -> 90 [labeldistance=2.5, labelangle=-45, headlabel="False"] ;
91 [label="838 <= 3.13\ngini = 0.76\nsamples = 56\nvalue = [0, 11, 6, 34, 23, 0, 2, 0, 18, 1]\nclass = Giratubi", fillcolor="#e1fbe6"] ;
90 -> 91 ;
92 [label="72 <= -0.43\ngini = 0.74\nsamples = 54\nvalue = [0, 5, 6, 34, 23, 0, 2, 0, 18, 1]\nclass = Giratubi", fillcolor="#defbe4"] ;
91 -> 92 ;
93 [label="3654 <= -0.24\ngini = 0.75\nsamples = 36\nvalue = [0, 5, 1, 12, 15, 0, 2, 0, 18, 1]\nclass = Cacciavite", fillcolor="#fdf0fa"] ;
92 -> 93 ;
94 [label="118 <= -0.25\ngini = 0.72\nsamples = 32\nvalue = [0, 5, 1, 6, 15, 0, 2, 0, 18, 0]\nclass = Cacciavite", fillcolor="#fdecf9"] ;
93 -> 94 ;
95 [label="1014 <= 0.18\ngini = 0.65\nsamples = 19\nvalue = [0, 5, 1, 4, 1, 0, 2, 0, 15, 0]\nclass = Cacciavite", fillcolor="#f4a9e4"] ;
94 -> 95 ;
96 [label="212 <= -0.2\ngini = 0.77\nsamples = 8\nvalue = [0, 2, 0, 3, 1, 0, 2, 0, 1, 0]\nclass = Giratubi", fillcolor="#e3fbe8"] ;
95 -> 96 ;
97 [label="2112 <= -0.04\ngini = 0.69\nsamples = 6\nvalue = [0, 0, 0, 3, 1, 0, 2, 0, 1, 0]\nclass = Giratubi", fillcolor="#d7fadf"] ;
96 -> 97 ;
98 [label="2186 <= 0.35\ngini = 0.56\nsamples = 5\nvalue = [0, 0, 0, 3, 1, 0, 0, 0, 1, 0]\nclass = Giratubi", fillcolor="#9cf2ae"] ;
97 -> 98 ;
99 [label="806 <= -0.1\ngini = 0.38\nsamples = 4\nvalue = [0, 0, 0, 3, 0, 0, 0, 0, 1, 0]\nclass = Giratubi", fillcolor="#7bee94"] ;
98 -> 99 ;
100 [label="gini = 0.0\nsamples = 1\nvalue = [0, 0, 0, 0, 0, 0, 0, 0, 1, 0]\nclass = Cacciavite", fillcolor="#e539c0"] ;
99 -> 100 ;
101 [label="gini = 0.0\nsamples = 3\nvalue = [0, 0, 0, 3, 0, 0, 0, 0, 0, 0]\nclass = Giratubi", fillcolor="#39e55e"] ;
99 -> 101 ;
102 [label="gini = 0.0\nsamples = 1\nvalue = [0, 0, 0, 0, 1, 0, 0, 0, 0, 0]\nclass = Spatola", fillcolor="#39e5c5"] ;
98 -> 102 ;
103 [label="gini = 0.0\nsamples = 1\nvalue = [0, 0, 0, 0, 0, 0, 2, 0, 0, 0]\nclass = Martello", fillcolor="#3c39e5"] ;
97 -> 103 ;
104 [label="gini = 0.0\nsamples = 2\nvalue = [0, 2, 0, 0, 0, 0, 0, 0, 0, 0]\nclass = Pappagallo", fillcolor="#e2e539"] ;
96 -> 104 ;
105 [label="326 <= -0.18\ngini = 0.43\nsamples = 11\nvalue = [0, 3, 1, 1, 0, 0, 0, 0, 14, 0]\nclass = Cacciavite", fillcolor="#ed77d4"] ;
95 -> 105 ;
106 [label="238 <= 2.2\ngini = 0.29\nsamples = 9\nvalue = [0, 3, 0, 0, 0, 0, 0, 0, 14, 0]\nclass = Cacciavite", fillcolor="#eb63ce"] ;
105 -> 106 ;
107 [label="gini = 0.0\nsamples = 8\nvalue = [0, 0, 0, 0, 0, 0, 0, 0, 14, 0]\nclass = Cacciavite", fillcolor="#e539c0"] ;
106 -> 107 ;
108 [label="gini = 0.0\nsamples = 1\nvalue = [0, 3, 0, 0, 0, 0, 0, 0, 0, 0]\nclass = Pappagallo", fillcolor="#e2e539"] ;
106 -> 108 ;
109 [label="518 <= 3.09\ngini = 0.5\nsamples = 2\nvalue = [0, 0, 1, 1, 0, 0, 0, 0, 0, 0]\nclass = Pinza", fillcolor="#ffffff"] ;
105 -> 109 ;
110 [label="gini = 0.0\nsamples = 1\nvalue = [0, 0, 0, 1, 0, 0, 0, 0, 0, 0]\nclass = Giratubi", fillcolor="#39e55e"] ;
109 -> 110 ;
111 [label="gini = 0.0\nsamples = 1\nvalue = [0, 0, 1, 0, 0, 0, 0, 0, 0, 0]\nclass = Pinza", fillcolor="#7be539"] ;
109 -> 111 ;
112 [label="3342 <= -0.08\ngini = 0.42\nsamples = 13\nvalue = [0, 0, 0, 2, 14, 0, 0, 0, 3, 0]\nclass = Spatola", fillcolor="#77edd7"] ;
94 -> 112 ;
113 [label="678 <= 0.48\ngini = 0.48\nsamples = 11\nvalue = [0, 0, 0, 2, 11, 0, 0, 0, 3, 0]\nclass = Spatola", fillcolor="#85efdb"] ;
112 -> 113 ;
114 [label="526 <= -0.28\ngini = 0.42\nsamples = 10\nvalue = [0, 0, 0, 1, 11, 0, 0, 0, 3, 0]\nclass = Spatola", fillcolor="#7beed8"] ;
113 -> 114 ;
115 [label="gini = 0.0\nsamples = 6\nvalue = [0, 0, 0, 0, 11, 0, 0, 0, 0, 0]\nclass = Spatola", fillcolor="#39e5c5"] ;
114 -> 115 ;
116 [label="1574 <= -0.5\ngini = 0.38\nsamples = 4\nvalue = [0, 0, 0, 1, 0, 0, 0, 0, 3, 0]\nclass = Cacciavite", fillcolor="#ee7bd5"] ;
114 -> 116 ;
117 [label="gini = 0.0\nsamples = 3\nvalue = [0, 0, 0, 0, 0, 0, 0, 0, 3, 0]\nclass = Cacciavite", fillcolor="#e539c0"] ;
116 -> 117 ;
118 [label="gini = 0.0\nsamples = 1\nvalue = [0, 0, 0, 1, 0, 0, 0, 0, 0, 0]\nclass = Giratubi", fillcolor="#39e55e"] ;
116 -> 118 ;
119 [label="gini = 0.0\nsamples = 1\nvalue = [0, 0, 0, 1, 0, 0, 0, 0, 0, 0]\nclass = Giratubi", fillcolor="#39e55e"] ;
113 -> 119 ;
120 [label="gini = 0.0\nsamples = 2\nvalue = [0, 0, 0, 0, 3, 0, 0, 0, 0, 0]\nclass = Spatola", fillcolor="#39e5c5"] ;
112 -> 120 ;
121 [label="7422 <= 0.75\ngini = 0.24\nsamples = 4\nvalue = [0, 0, 0, 6, 0, 0, 0, 0, 0, 1]\nclass = Giratubi", fillcolor="#5ae979"] ;
93 -> 121 ;
122 [label="gini = 0.0\nsamples = 3\nvalue = [0, 0, 0, 6, 0, 0, 0, 0, 0, 0]\nclass = Giratubi", fillcolor="#39e55e"] ;
121 -> 122 ;
123 [label="gini = 0.0\nsamples = 1\nvalue = [0, 0, 0, 0, 0, 0, 0, 0, 0, 1]\nclass = Trapano", fillcolor="#e53958"] ;
121 -> 123 ;
124 [label="994 <= -0.11\ngini = 0.53\nsamples = 18\nvalue = [0, 0, 5, 22, 8, 0, 0, 0, 0, 0]\nclass = Giratubi", fillcolor="#98f2ac"] ;
92 -> 124 ;
125 [label="398 <= 0.92\ngini = 0.39\nsamples = 15\nvalue = [0, 0, 0, 22, 8, 0, 0, 0, 0, 0]\nclass = Giratubi", fillcolor="#81ee99"] ;
124 -> 125 ;
126 [label="14 <= -0.88\ngini = 0.5\nsamples = 9\nvalue = [0, 0, 0, 8, 8, 0, 0, 0, 0, 0]\nclass = Giratubi", fillcolor="#ffffff"] ;
125 -> 126 ;
127 [label="gini = 0.0\nsamples = 4\nvalue = [0, 0, 0, 7, 0, 0, 0, 0, 0, 0]\nclass = Giratubi", fillcolor="#39e55e"] ;
126 -> 127 ;
128 [label="362 <= 0.47\ngini = 0.2\nsamples = 5\nvalue = [0, 0, 0, 1, 8, 0, 0, 0, 0, 0]\nclass = Spatola", fillcolor="#52e8cc"] ;
126 -> 128 ;
129 [label="gini = 0.0\nsamples = 4\nvalue = [0, 0, 0, 0, 8, 0, 0, 0, 0, 0]\nclass = Spatola", fillcolor="#39e5c5"] ;
128 -> 129 ;
130 [label="gini = 0.0\nsamples = 1\nvalue = [0, 0, 0, 1, 0, 0, 0, 0, 0, 0]\nclass = Giratubi", fillcolor="#39e55e"] ;
128 -> 130 ;
131 [label="gini = 0.0\nsamples = 6\nvalue = [0, 0, 0, 14, 0, 0, 0, 0, 0, 0]\nclass = Giratubi", fillcolor="#39e55e"] ;
125 -> 131 ;
132 [label="gini = 0.0\nsamples = 3\nvalue = [0, 0, 5, 0, 0, 0, 0, 0, 0, 0]\nclass = Pinza", fillcolor="#7be539"] ;
124 -> 132 ;
133 [label="gini = 0.0\nsamples = 2\nvalue = [0, 6, 0, 0, 0, 0, 0, 0, 0, 0]\nclass = Pappagallo", fillcolor="#e2e539"] ;
91 -> 133 ;
134 [label="gini = 0.0\nsamples = 8\nvalue = [0, 0, 0, 0, 0, 0, 0, 0, 0, 12]\nclass = Trapano", fillcolor="#e53958"] ;
90 -> 134 ;
}