digraph Tree {
node [shape=box, style="filled, rounded", color="black", fontname="helvetica"] ;
edge [fontname="helvetica"] ;
0 [label="1 <= 1.38\ngini = 0.89\nsamples = 287\nvalue = [25, 40, 38, 29, 28, 13, 38, 18, 32, 26]\nclass = Pappagallo", fillcolor="#fffffd"] ;
1 [label="6250 <= -0.27\ngini = 0.87\nsamples = 213\nvalue = [25, 30, 3, 29, 26, 13, 38, 18, 31, 0]\nclass = Martello", fillcolor="#f8f7fe"] ;
0 -> 1 [labeldistance=2.5, labelangle=45, headlabel="True"] ;
2 [label="0 <= 2.65\ngini = 0.86\nsamples = 182\nvalue = [25, 30, 3, 28, 26, 13, 8, 18, 31, 0]\nclass = Cacciavite", fillcolor="#fffeff"] ;
1 -> 2 ;
3 [label="394 <= 0.8\ngini = 0.84\nsamples = 149\nvalue = [25, 30, 2, 23, 0, 13, 8, 18, 30, 0]\nclass = Pappagallo", fillcolor="#ffffff"] ;
2 -> 3 ;
4 [label="2 <= 1.82\ngini = 0.78\nsamples = 104\nvalue = [0, 30, 2, 23, 0, 13, 6, 2, 28, 0]\nclass = Pappagallo", fillcolor="#fefefa"] ;
3 -> 4 ;
5 [label="1574 <= -0.52\ngini = 0.67\nsamples = 65\nvalue = [0, 6, 0, 23, 0, 0, 6, 2, 28, 0]\nclass = Cacciavite", fillcolor="#fce7f8"] ;
4 -> 5 ;
6 [label="456 <= 0.0\ngini = 0.35\nsamples = 34\nvalue = [0, 4, 0, 0, 0, 0, 1, 2, 27, 0]\nclass = Cacciavite", fillcolor="#eb67cf"] ;
5 -> 6 ;
7 [label="1162 <= -0.08\ngini = 0.66\nsamples = 8\nvalue = [0, 4, 0, 0, 0, 0, 1, 2, 1, 0]\nclass = Pappagallo", fillcolor="#f5f6bd"] ;
6 -> 7 ;
8 [label="130 <= -0.46\ngini = 0.62\nsamples = 4\nvalue = [0, 0, 0, 0, 0, 0, 1, 2, 1, 0]\nclass = Brugola", fillcolor="#e0bdf6"] ;
7 -> 8 ;
9 [label="gini = 0.0\nsamples = 2\nvalue = [0, 0, 0, 0, 0, 0, 0, 2, 0, 0]\nclass = Brugola", fillcolor="#a339e5"] ;
8 -> 9 ;
10 [label="114 <= 1.59\ngini = 0.5\nsamples = 2\nvalue = [0, 0, 0, 0, 0, 0, 1, 0, 1, 0]\nclass = Martello", fillcolor="#ffffff"] ;
8 -> 10 ;
11 [label="gini = 0.0\nsamples = 1\nvalue = [0, 0, 0, 0, 0, 0, 0, 0, 1, 0]\nclass = Cacciavite", fillcolor="#e539c0"] ;
10 -> 11 ;
12 [label="gini = 0.0\nsamples = 1\nvalue = [0, 0, 0, 0, 0, 0, 1, 0, 0, 0]\nclass = Martello", fillcolor="#3c39e5"] ;
10 -> 12 ;
13 [label="gini = 0.0\nsamples = 4\nvalue = [0, 4, 0, 0, 0, 0, 0, 0, 0, 0]\nclass = Pappagallo", fillcolor="#e2e539"] ;
7 -> 13 ;
14 [label="gini = 0.0\nsamples = 26\nvalue = [0, 0, 0, 0, 0, 0, 0, 0, 26, 0]\nclass = Cacciavite", fillcolor="#e539c0"] ;
6 -> 14 ;
15 [label="1806 <= -0.47\ngini = 0.42\nsamples = 31\nvalue = [0, 2, 0, 23, 0, 0, 5, 0, 1, 0]\nclass = Giratubi", fillcolor="#76ed90"] ;
5 -> 15 ;
16 [label="394 <= -0.56\ngini = 0.53\nsamples = 8\nvalue = [0, 2, 0, 0, 0, 0, 5, 0, 1, 0]\nclass = Martello", fillcolor="#9e9cf2"] ;
15 -> 16 ;
17 [label="210 <= -0.18\ngini = 0.44\nsamples = 3\nvalue = [0, 2, 0, 0, 0, 0, 0, 0, 1, 0]\nclass = Pappagallo", fillcolor="#f0f29c"] ;
16 -> 17 ;
18 [label="gini = 0.0\nsamples = 1\nvalue = [0, 0, 0, 0, 0, 0, 0, 0, 1, 0]\nclass = Cacciavite", fillcolor="#e539c0"] ;
17 -> 18 ;
19 [label="gini = 0.0\nsamples = 2\nvalue = [0, 2, 0, 0, 0, 0, 0, 0, 0, 0]\nclass = Pappagallo", fillcolor="#e2e539"] ;
17 -> 19 ;
20 [label="gini = 0.0\nsamples = 5\nvalue = [0, 0, 0, 0, 0, 0, 5, 0, 0, 0]\nclass = Martello", fillcolor="#3c39e5"] ;
16 -> 20 ;
21 [label="gini = 0.0\nsamples = 23\nvalue = [0, 0, 0, 23, 0, 0, 0, 0, 0, 0]\nclass = Giratubi", fillcolor="#39e55e"] ;
15 -> 21 ;
22 [label="1 <= -2.9\ngini = 0.51\nsamples = 39\nvalue = [0, 24, 2, 0, 0, 13, 0, 0, 0, 0]\nclass = Pappagallo", fillcolor="#f3f4ab"] ;
4 -> 22 ;
23 [label="gini = 0.0\nsamples = 13\nvalue = [0, 0, 0, 0, 0, 13, 0, 0, 0, 0]\nclass = Chiave inglese", fillcolor="#399de5"] ;
22 -> 23 ;
24 [label="138 <= 0.2\ngini = 0.14\nsamples = 26\nvalue = [0, 24, 2, 0, 0, 0, 0, 0, 0, 0]\nclass = Pappagallo", fillcolor="#e4e749"] ;
22 -> 24 ;
25 [label="gini = 0.0\nsamples = 24\nvalue = [0, 24, 0, 0, 0, 0, 0, 0, 0, 0]\nclass = Pappagallo", fillcolor="#e2e539"] ;
24 -> 25 ;
26 [label="gini = 0.0\nsamples = 2\nvalue = [0, 0, 2, 0, 0, 0, 0, 0, 0, 0]\nclass = Pinza", fillcolor="#7be539"] ;
24 -> 26 ;
27 [label="106 <= 1.98\ngini = 0.56\nsamples = 45\nvalue = [25, 0, 0, 0, 0, 0, 2, 16, 2, 0]\nclass = Lima", fillcolor="#f7d8c2"] ;
3 -> 27 ;
28 [label="5 <= 1.04\ngini = 0.25\nsamples = 29\nvalue = [25, 0, 0, 0, 0, 0, 2, 0, 2, 0]\nclass = Lima", fillcolor="#e99456"] ;
27 -> 28 ;
29 [label="gini = 0.0\nsamples = 2\nvalue = [0, 0, 0, 0, 0, 0, 0, 0, 2, 0]\nclass = Cacciavite", fillcolor="#e539c0"] ;
28 -> 29 ;
30 [label="38 <= -0.65\ngini = 0.14\nsamples = 27\nvalue = [25, 0, 0, 0, 0, 0, 2, 0, 0, 0]\nclass = Lima", fillcolor="#e78b49"] ;
28 -> 30 ;
31 [label="gini = 0.0\nsamples = 25\nvalue = [25, 0, 0, 0, 0, 0, 0, 0, 0, 0]\nclass = Lima", fillcolor="#e58139"] ;
30 -> 31 ;
32 [label="gini = 0.0\nsamples = 2\nvalue = [0, 0, 0, 0, 0, 0, 2, 0, 0, 0]\nclass = Martello", fillcolor="#3c39e5"] ;
30 -> 32 ;
33 [label="gini = 0.0\nsamples = 16\nvalue = [0, 0, 0, 0, 0, 0, 0, 16, 0, 0]\nclass = Brugola", fillcolor="#a339e5"] ;
27 -> 33 ;
34 [label="70 <= 0.82\ngini = 0.35\nsamples = 33\nvalue = [0, 0, 1, 5, 26, 0, 0, 0, 1, 0]\nclass = Spatola", fillcolor="#6aecd4"] ;
2 -> 34 ;
35 [label="264 <= -0.49\ngini = 0.45\nsamples = 7\nvalue = [0, 0, 1, 5, 0, 0, 0, 0, 1, 0]\nclass = Giratubi", fillcolor="#7bee94"] ;
34 -> 35 ;
36 [label="22 <= -0.26\ngini = 0.5\nsamples = 2\nvalue = [0, 0, 1, 0, 0, 0, 0, 0, 1, 0]\nclass = Pinza", fillcolor="#ffffff"] ;
35 -> 36 ;
37 [label="gini = 0.0\nsamples = 1\nvalue = [0, 0, 1, 0, 0, 0, 0, 0, 0, 0]\nclass = Pinza", fillcolor="#7be539"] ;
36 -> 37 ;
38 [label="gini = 0.0\nsamples = 1\nvalue = [0, 0, 0, 0, 0, 0, 0, 0, 1, 0]\nclass = Cacciavite", fillcolor="#e539c0"] ;
36 -> 38 ;
39 [label="gini = 0.0\nsamples = 5\nvalue = [0, 0, 0, 5, 0, 0, 0, 0, 0, 0]\nclass = Giratubi", fillcolor="#39e55e"] ;
35 -> 39 ;
40 [label="gini = 0.0\nsamples = 26\nvalue = [0, 0, 0, 0, 26, 0, 0, 0, 0, 0]\nclass = Spatola", fillcolor="#39e5c5"] ;
34 -> 40 ;
41 [label="3174 <= 8.24\ngini = 0.06\nsamples = 31\nvalue = [0, 0, 0, 1, 0, 0, 30, 0, 0, 0]\nclass = Martello", fillcolor="#4240e6"] ;
1 -> 41 ;
42 [label="gini = 0.0\nsamples = 30\nvalue = [0, 0, 0, 0, 0, 0, 30, 0, 0, 0]\nclass = Martello", fillcolor="#3c39e5"] ;
41 -> 42 ;
43 [label="gini = 0.0\nsamples = 1\nvalue = [0, 0, 0, 1, 0, 0, 0, 0, 0, 0]\nclass = Giratubi", fillcolor="#39e55e"] ;
41 -> 43 ;
44 [label="2030 <= -0.22\ngini = 0.63\nsamples = 74\nvalue = [0, 10, 35, 0, 2, 0, 0, 0, 1, 26]\nclass = Pinza", fillcolor="#e6fada"] ;
0 -> 44 [labeldistance=2.5, labelangle=-45, headlabel="False"] ;
45 [label="3 <= -0.5\ngini = 0.42\nsamples = 48\nvalue = [0, 10, 35, 0, 1, 0, 0, 0, 1, 1]\nclass = Pinza", fillcolor="#a8ee7d"] ;
44 -> 45 ;
46 [label="1930 <= -0.16\ngini = 0.39\nsamples = 13\nvalue = [0, 10, 1, 0, 1, 0, 0, 0, 1, 0]\nclass = Pappagallo", fillcolor="#e9ec6b"] ;
45 -> 46 ;
47 [label="gini = 0.0\nsamples = 10\nvalue = [0, 10, 0, 0, 0, 0, 0, 0, 0, 0]\nclass = Pappagallo", fillcolor="#e2e539"] ;
46 -> 47 ;
48 [label="526 <= -0.62\ngini = 0.67\nsamples = 3\nvalue = [0, 0, 1, 0, 1, 0, 0, 0, 1, 0]\nclass = Pinza", fillcolor="#ffffff"] ;
46 -> 48 ;
49 [label="gini = 0.0\nsamples = 1\nvalue = [0, 0, 0, 0, 1, 0, 0, 0, 0, 0]\nclass = Spatola", fillcolor="#39e5c5"] ;
48 -> 49 ;
50 [label="918 <= -0.27\ngini = 0.5\nsamples = 2\nvalue = [0, 0, 1, 0, 0, 0, 0, 0, 1, 0]\nclass = Pinza", fillcolor="#ffffff"] ;
48 -> 50 ;
51 [label="gini = 0.0\nsamples = 1\nvalue = [0, 0, 1, 0, 0, 0, 0, 0, 0, 0]\nclass = Pinza", fillcolor="#7be539"] ;
50 -> 51 ;
52 [label="gini = 0.0\nsamples = 1\nvalue = [0, 0, 0, 0, 0, 0, 0, 0, 1, 0]\nclass = Cacciavite", fillcolor="#e539c0"] ;
50 -> 52 ;
53 [label="6406 <= 1.65\ngini = 0.06\nsamples = 35\nvalue = [0, 0, 34, 0, 0, 0, 0, 0, 0, 1]\nclass = Pinza", fillcolor="#7fe63f"] ;
45 -> 53 ;
54 [label="gini = 0.0\nsamples = 34\nvalue = [0, 0, 34, 0, 0, 0, 0, 0, 0, 0]\nclass = Pinza", fillcolor="#7be539"] ;
53 -> 54 ;
55 [label="gini = 0.0\nsamples = 1\nvalue = [0, 0, 0, 0, 0, 0, 0, 0, 0, 1]\nclass = Trapano", fillcolor="#e53958"] ;
53 -> 55 ;
56 [label="1028 <= 0.65\ngini = 0.07\nsamples = 26\nvalue = [0, 0, 0, 0, 1, 0, 0, 0, 0, 25]\nclass = Trapano", fillcolor="#e6415f"] ;
44 -> 56 ;
57 [label="gini = 0.0\nsamples = 25\nvalue = [0, 0, 0, 0, 0, 0, 0, 0, 0, 25]\nclass = Trapano", fillcolor="#e53958"] ;
56 -> 57 ;
58 [label="gini = 0.0\nsamples = 1\nvalue = [0, 0, 0, 0, 1, 0, 0, 0, 0, 0]\nclass = Spatola", fillcolor="#39e5c5"] ;
56 -> 58 ;
}